digraph Tree {
node [shape=box, fontname="helvetica"] ;
edge [fontname="helvetica"] ;
0 [label="area_worst <= 0.112\ngini = 0.466\nsamples = 282\nvalue = [287, 168]\nclass = 0"] ;
1 [label="perimeter_se <= 1.039\ngini = 0.098\nsamples = 159\nvalue = [257, 14]\nclass = 0"] ;
0 -> 1 [labeldistance=2.5, labelangle=45, headlabel="True"] ;
2 [label="concave_points_worst <= 0.611\ngini = 0.059\nsamples = 155\nvalue = [255, 8]\nclass = 0"] ;
1 -> 2 ;
3 [label="smoothness_mean <= 1.394\ngini = 0.023\nsamples = 151\nvalue = [255, 3]\nclass = 0"] ;
2 -> 3 ;
4 [label="rnd <= 0.825\ngini = 0.008\nsamples = 148\nvalue = [253, 1]\nclass = 0"] ;
3 -> 4 ;
5 [label="gini = 0.0\nsamples = 125\nvalue = [221, 0]\nclass = 0"] ;
4 -> 5 ;
6 [label="smoothness_worst <= 0.231\ngini = 0.059\nsamples = 23\nvalue = [32, 1]\nclass = 0"] ;
4 -> 6 ;
7 [label="gini = 0.0\nsamples = 19\nvalue = [25, 0]\nclass = 0"] ;
6 -> 7 ;
8 [label="perimeter_worst <= -0.292\ngini = 0.219\nsamples = 4\nvalue = [7, 1]\nclass = 0"] ;
6 -> 8 ;
9 [label="gini = 0.0\nsamples = 3\nvalue = [7, 0]\nclass = 0"] ;
8 -> 9 ;
10 [label="gini = 0.0\nsamples = 1\nvalue = [0, 1]\nclass = 1"] ;
8 -> 10 ;
11 [label="texture_worst <= 0.967\ngini = 0.5\nsamples = 3\nvalue = [2, 2]\nclass = 0"] ;
3 -> 11 ;
12 [label="gini = 0.0\nsamples = 2\nvalue = [2, 0]\nclass = 0"] ;
11 -> 12 ;
13 [label="gini = 0.0\nsamples = 1\nvalue = [0, 2]\nclass = 1"] ;
11 -> 13 ;
14 [label="gini = 0.0\nsamples = 4\nvalue = [0, 5]\nclass = 1"] ;
2 -> 14 ;
15 [label="fractal_dimension_se <= 0.121\ngini = 0.375\nsamples = 4\nvalue = [2, 6]\nclass = 1"] ;
1 -> 15 ;
16 [label="gini = 0.0\nsamples = 2\nvalue = [0, 6]\nclass = 1"] ;
15 -> 16 ;
17 [label="gini = 0.0\nsamples = 2\nvalue = [2, 0]\nclass = 0"] ;
15 -> 17 ;
18 [label="concavity_worst <= -0.032\ngini = 0.273\nsamples = 123\nvalue = [30, 154]\nclass = 1"] ;
0 -> 18 [labeldistance=2.5, labelangle=-45, headlabel="False"] ;
19 [label="concave_points_se <= -0.256\ngini = 0.188\nsamples = 14\nvalue = [17, 2]\nclass = 0"] ;
18 -> 19 ;
20 [label="texture_mean <= 0.279\ngini = 0.408\nsamples = 5\nvalue = [5, 2]\nclass = 0"] ;
19 -> 20 ;
21 [label="gini = 0.0\nsamples = 3\nvalue = [5, 0]\nclass = 0"] ;
20 -> 21 ;
22 [label="gini = 0.0\nsamples = 2\nvalue = [0, 2]\nclass = 1"] ;
20 -> 22 ;
23 [label="gini = 0.0\nsamples = 9\nvalue = [12, 0]\nclass = 0"] ;
19 -> 23 ;
24 [label="texture_mean <= -0.615\ngini = 0.145\nsamples = 109\nvalue = [13.0, 152.0]\nclass = 1"] ;
18 -> 24 ;
25 [label="concavity_worst <= 0.5\ngini = 0.486\nsamples = 10\nvalue = [7, 5]\nclass = 0"] ;
24 -> 25 ;
26 [label="gini = 0.0\nsamples = 6\nvalue = [7, 0]\nclass = 0"] ;
25 -> 26 ;
27 [label="gini = 0.0\nsamples = 4\nvalue = [0, 5]\nclass = 1"] ;
25 -> 27 ;
28 [label="area_mean <= 0.41\ngini = 0.075\nsamples = 99\nvalue = [6, 147]\nclass = 1"] ;
24 -> 28 ;
29 [label="radius_mean <= 0.392\ngini = 0.25\nsamples = 24\nvalue = [6, 35]\nclass = 1"] ;
28 -> 29 ;
30 [label="smoothness_worst <= -0.354\ngini = 0.184\nsamples = 23\nvalue = [4, 35]\nclass = 1"] ;
29 -> 30 ;
31 [label="gini = 0.0\nsamples = 3\nvalue = [4, 0]\nclass = 0"] ;
30 -> 31 ;
32 [label="gini = 0.0\nsamples = 20\nvalue = [0, 35]\nclass = 1"] ;
30 -> 32 ;
33 [label="gini = 0.0\nsamples = 1\nvalue = [2, 0]\nclass = 0"] ;
29 -> 33 ;
34 [label="gini = 0.0\nsamples = 75\nvalue = [0, 112]\nclass = 1"] ;
28 -> 34 ;
}