digraph Tree {
node [shape=box, fontname="helvetica"] ;
edge [fontname="helvetica"] ;
0 [label="area_mean <= 699.05\ngini = 0.463\nsamples = 369\nvalue = [362, 207]\nclass = 0"] ;
1 [label="fractal_dimension_worst <= 0.101\ngini = 0.235\nsamples = 257\nvalue = [356, 56]\nclass = 0"] ;
0 -> 1 [labeldistance=2.5, labelangle=45, headlabel="True"] ;
2 [label="radius_worst <= 16.825\ngini = 0.102\nsamples = 214\nvalue = [332, 19]\nclass = 0"] ;
1 -> 2 ;
3 [label="concave_points_worst <= 0.16\ngini = 0.052\nsamples = 207\nvalue = [328, 9]\nclass = 0"] ;
2 -> 3 ;
4 [label="radius_worst <= 15.78\ngini = 0.041\nsamples = 206\nvalue = [328, 7]\nclass = 0"] ;
3 -> 4 ;
5 [label="concave_points_mean <= 0.061\ngini = 0.013\nsamples = 188\nvalue = [303, 2]\nclass = 0"] ;
4 -> 5 ;
6 [label="smoothness_worst <= 0.142\ngini = 0.007\nsamples = 184\nvalue = [297, 1]\nclass = 0"] ;
5 -> 6 ;
7 [label="gini = 0.0\nsamples = 149\nvalue = [238, 0]\nclass = 0"] ;
6 -> 7 ;
8 [label="radius_worst <= 14.47\ngini = 0.033\nsamples = 35\nvalue = [59, 1]\nclass = 0"] ;
6 -> 8 ;
9 [label="gini = 0.0\nsamples = 29\nvalue = [50, 0]\nclass = 0"] ;
8 -> 9 ;
10 [label="texture_se <= 1.356\ngini = 0.18\nsamples = 6\nvalue = [9, 1]\nclass = 0"] ;
8 -> 10 ;
11 [label="gini = 0.0\nsamples = 5\nvalue = [9, 0]\nclass = 0"] ;
10 -> 11 ;
12 [label="gini = 0.0\nsamples = 1\nvalue = [0, 1]\nclass = 1"] ;
10 -> 12 ;
13 [label="symmetry_se <= 0.016\ngini = 0.245\nsamples = 4\nvalue = [6, 1]\nclass = 0"] ;
5 -> 13 ;
14 [label="gini = 0.0\nsamples = 1\nvalue = [0, 1]\nclass = 1"] ;
13 -> 14 ;
15 [label="gini = 0.0\nsamples = 3\nvalue = [6, 0]\nclass = 0"] ;
13 -> 15 ;
16 [label="texture_se <= 1.569\ngini = 0.278\nsamples = 18\nvalue = [25, 5]\nclass = 0"] ;
4 -> 16 ;
17 [label="smoothness_se <= 0.003\ngini = 0.08\nsamples = 14\nvalue = [23, 1]\nclass = 0"] ;
16 -> 17 ;
18 [label="gini = 0.0\nsamples = 1\nvalue = [0, 1]\nclass = 1"] ;
17 -> 18 ;
19 [label="gini = 0.0\nsamples = 13\nvalue = [23, 0]\nclass = 0"] ;
17 -> 19 ;
20 [label="concave_points_worst <= 0.103\ngini = 0.444\nsamples = 4\nvalue = [2, 4]\nclass = 1"] ;
16 -> 20 ;
21 [label="gini = 0.0\nsamples = 1\nvalue = [2, 0]\nclass = 0"] ;
20 -> 21 ;
22 [label="gini = 0.0\nsamples = 3\nvalue = [0, 4]\nclass = 1"] ;
20 -> 22 ;
23 [label="gini = 0.0\nsamples = 1\nvalue = [0, 2]\nclass = 1"] ;
3 -> 23 ;
24 [label="smoothness_worst <= 0.124\ngini = 0.408\nsamples = 7\nvalue = [4, 10]\nclass = 1"] ;
2 -> 24 ;
25 [label="gini = 0.0\nsamples = 2\nvalue = [4, 0]\nclass = 0"] ;
24 -> 25 ;
26 [label="gini = 0.0\nsamples = 5\nvalue = [0, 10]\nclass = 1"] ;
24 -> 26 ;
27 [label="concave_points_mean <= 0.05\ngini = 0.477\nsamples = 43\nvalue = [24, 37]\nclass = 1"] ;
1 -> 27 ;
28 [label="gini = 0.0\nsamples = 11\nvalue = [17, 0]\nclass = 0"] ;
27 -> 28 ;
29 [label="perimeter_mean <= 73.865\ngini = 0.268\nsamples = 32\nvalue = [7, 37]\nclass = 1"] ;
27 -> 29 ;
30 [label="gini = 0.0\nsamples = 4\nvalue = [5, 0]\nclass = 0"] ;
29 -> 30 ;
31 [label="concave_points_se <= 0.023\ngini = 0.097\nsamples = 28\nvalue = [2, 37]\nclass = 1"] ;
29 -> 31 ;
32 [label="texture_worst <= 22.275\ngini = 0.051\nsamples = 27\nvalue = [1, 37]\nclass = 1"] ;
31 -> 32 ;
33 [label="fractal_dimension_mean <= 0.067\ngini = 0.375\nsamples = 2\nvalue = [1, 3]\nclass = 1"] ;
32 -> 33 ;
34 [label="gini = 0.0\nsamples = 1\nvalue = [0, 3]\nclass = 1"] ;
33 -> 34 ;
35 [label="gini = 0.0\nsamples = 1\nvalue = [1, 0]\nclass = 0"] ;
33 -> 35 ;
36 [label="gini = 0.0\nsamples = 25\nvalue = [0, 34]\nclass = 1"] ;
32 -> 36 ;
37 [label="gini = 0.0\nsamples = 1\nvalue = [1, 0]\nclass = 0"] ;
31 -> 37 ;
38 [label="concave_points_worst <= 0.082\ngini = 0.074\nsamples = 112\nvalue = [6, 151]\nclass = 1"] ;
0 -> 38 [labeldistance=2.5, labelangle=-45, headlabel="False"] ;
39 [label="compactness_worst <= 0.136\ngini = 0.444\nsamples = 2\nvalue = [2, 1]\nclass = 0"] ;
38 -> 39 ;
40 [label="gini = 0.0\nsamples = 1\nvalue = [0, 1]\nclass = 1"] ;
39 -> 40 ;
41 [label="gini = 0.0\nsamples = 1\nvalue = [2, 0]\nclass = 0"] ;
39 -> 41 ;
42 [label="texture_mean <= 14.095\ngini = 0.051\nsamples = 110\nvalue = [4, 150]\nclass = 1"] ;
38 -> 42 ;
43 [label="smoothness_se <= 0.005\ngini = 0.48\nsamples = 4\nvalue = [2, 3]\nclass = 1"] ;
42 -> 43 ;
44 [label="gini = 0.0\nsamples = 2\nvalue = [2, 0]\nclass = 0"] ;
43 -> 44 ;
45 [label="gini = 0.0\nsamples = 2\nvalue = [0, 3]\nclass = 1"] ;
43 -> 45 ;
46 [label="radius_worst <= 17.04\ngini = 0.026\nsamples = 106\nvalue = [2, 147]\nclass = 1"] ;
42 -> 46 ;
47 [label="fractal_dimension_mean <= 0.06\ngini = 0.444\nsamples = 2\nvalue = [1, 2]\nclass = 1"] ;
46 -> 47 ;
48 [label="gini = 0.0\nsamples = 1\nvalue = [0, 2]\nclass = 1"] ;
47 -> 48 ;
49 [label="gini = 0.0\nsamples = 1\nvalue = [1, 0]\nclass = 0"] ;
47 -> 49 ;
50 [label="concavity_se <= 0.018\ngini = 0.014\nsamples = 104\nvalue = [1, 145]\nclass = 1"] ;
46 -> 50 ;
51 [label="smoothness_se <= 0.006\ngini = 0.133\nsamples = 8\nvalue = [1, 13]\nclass = 1"] ;
50 -> 51 ;
52 [label="gini = 0.0\nsamples = 7\nvalue = [0, 13]\nclass = 1"] ;
51 -> 52 ;
53 [label="gini = 0.0\nsamples = 1\nvalue = [1, 0]\nclass = 0"] ;
51 -> 53 ;
54 [label="gini = 0.0\nsamples = 96\nvalue = [0, 132]\nclass = 1"] ;
50 -> 54 ;
}